{
    "hidden_layer_0": {
        "biases": [
            0.38153371960906984,
            0.26958646658478164,
            0.3293602217739313,
            0.03905000701156174,
            -0.10281283090945849,
            0.14125141158091,
            0.16704583850534002,
            0.39021560944039324,
            -0.2146791062649921,
            0.14199427552424734
        ],
        "weights": [
            [
                0.009378722562230116,
                0.03477609175629633,
                0.03615796788440453,
                0.035077722611895824,
                0.012481818242982091,
                -0.011679211148302927,
                -0.02045209335821574,
                -0.04477875153280918,
                -0.022965182235471136,
                -0.0022561644203434802,
                0.0315338033554183,
                -0.0020226111132580424,
                -0.010800128177525474,
                0.03401530457158477,
                -0.016425468106594725,
                0.014967619815579501,
                -0.01330961462949673,
                0.04617964425868088,
                -0.03633005771493534,
                0.03738445785764482,
                -0.0026659905301364556,
                0.03039657625084239,
                0.0020685379129405726,
                0.01806956162800829,
                0.02228726344406847,
                0.008285250097510431,
                0.003775266162984056,
                0.026124122726482173,
                -0.039809343403407874,
                -0.0026667600056190857,
                -0.03168521802412019,
                0.023932350045999536,
                -0.028633142281090897,
                -0.03684048327892468,
                -0.016710577603966617,
                -0.03287110180429338,
                -0.029147858676193666,
                -0.012160708824889144,
                0.04136902459297134,
                -0.004003972283825563,
                0.023996266426086706,
                0.04434478331049801,
                -0.06369868131535777,
                0.01712127774072799,
                0.023771612015525436,
                -0.04019996566449572,
                -0.014062478992022913,
                0.024405037999547605,
                0.009000493967782937,
                -0.016492701704759027,
                -0.04402366608120163,
                0.015403651281434677,
                0.04636087723970502,
                0.015434152948589984,
                0.013643006837396006,
                0.0500328116550262,
                0.008268132150593993,
                -0.008650078865399521,
                -0.002555937947292454,
                0.01247640479123608,
                -0.016003950242729784,
                0.01773625331701004,
                -0.018244026449484328,
                0.026084169087468412,
                0.05218585054988521,
                0.05484423697603942,
                -0.02976781948910252,
                0.0635158131597798,
                0.1063919373122085,
                0.08688209032667592,
                0.05110194593998432,
                0.00951084703233443,
                0.006869373494664955,
                0.030781406089724222,
                -0.02211697824978668,
                -0.032423690136612865,
                0.02792372585940176,
                -0.0313380692045123,
                -0.01806783788977042,
                0.00710809125365384,
                0.04930474136309468,
                0.05473146666897901,
                -0.028605284272742226,
                0.006585069866860881,
                0.03688092841649345,
                0.0009060018797610453,
                0.04210619997741134,
                0.0425365555733903,
                -0.04272266704278089,
                -0.020351077041459314,
                -0.047151131122050646,
                0.06578617876979788,
                0.09689928378634598,
                0.21274989356037632,
                0.21877229379790913,
                0.2773711253820483,
                0.27903255717082165,
                0.21872885887715382,
                0.1965644215808157,
                0.20835788724183543,
                0.19822449786974364,
                0.04126354866277735,
                -0.04228820700217585,
                -0.028532370957010368,
                -0.004739582895968132,
                -0.08548550454296416,
                -0.0715511362272376,
                -0.024256792665329492,
                0.0488359409936681,
                0.030594972850243388,
                -0.005026589782033342,
                0.04834296367331183,
                -0.0387694617086243,
                0.0269974481806081,
                -0.008898614910784901,
                0.01658809508666056,
                -0.03069873383759473,
                -0.006301738461303061,
                0.09637831952604337,
                0.06072858030578435,
                0.16931834360649248,
                0.3403276741310475,
                0.36487569148509114,
                0.2643370922895631,
                0.12009134266050532,
                0.3553225575745838,
                0.16773871676638222,
                0.16693028608416804,
                0.1670472870366993,
                0.13230127599451075,
                0.10007174644719308,
                -0.06586235197234554,
                -0.09058709237137626,
                -0.1290409930350912,
                -0.2212518536830037,
                -0.1712918205801847,
                -0.13294357505849144,
                0.05254337738883482,
                -0.017925713965961963,
                -0.02815672102358943,
                -0.036237818111173555,
                -0.04068289098419122,
                0.05126866928204691,
                -0.02387493826193132,
                0.010785943609212601,
                0.04405074114502152,
                0.09393222572493617,
                0.166242946739165,
                0.1676893303758794,
                0.19201348836798413,
                0.30667115754136914,
                0.1637406976882206,
                0.13998978098619744,
                0.2180524806019217,
                0.2546362045681912,
                0.23581248628682214,
                0.1373081616078022,
                0.041499989455255244,
                0.1166423539901161,
                -0.07070563970317179,
                -0.13875975210121946,
                -0.11049199072085733,
                -0.25459202684874993,
                -0.32912847513267884,
                -0.1985329460204272,
                -0.06047881036530448,
                -0.0011932900375714582,
                0.04348686109844351,
                0.025253737639641914,
                -0.016192971279951326,
                0.002089868076021014,
                -0.012069590365391097,
                0.03795961137081991,
                0.10542557614057452,
                0.0953895213582606,
                0.16786529307418857,
                0.1838318153705469,
                0.14115285796337348,
                0.1869359953275468,
                0.0447424657150082,
                0.08743653398531226,
                0.23085428127362814,
                0.19197233351312662,
                0.1269421400509193,
                0.2331830002545349,
                0.02455739081853545,
                0.2900880078890053,
                -0.06998118562592158,
                -0.018866039176875755,
                -0.01702550633826993,
                -0.12635591740354557,
                -0.3759526678245524,
                -0.3236219835434681,
                -0.12007472237249113,
                -0.040326048573261,
                0.04102417994347842,
                0.018237768229200625,
                -0.04107862440747182,
                -0.02629036823784806,
                0.05238802532447553,
                0.21506746137163416,
                0.23407322621987067,
                0.1181153974360207,
                -0.01052485885813802,
                -0.013525166634977732,
                0.1489121413622387,
                0.06050982207401071,
                0.1199550489175744,
                0.18155972805650247,
                0.31233682396661483,
                0.2639456070537587,
                0.10409451340302435,
                0.21933268402723793,
                -0.0034820672071894836,
                0.13264553291834838,
                0.15126786943881626,
                -0.0013318303535606198,
                0.13817086781925988,
                0.0989917978899974,
                -0.2668375639598761,
                -0.3731168806455,
                -0.1750593007200772,
                -0.05281830431622827,
                0.03413341184730637,
                0.01817056891193721,
                -0.0027332624847126877,
                0.01200700609612626,
                0.12258548131808994,
                0.14504086523611504,
                0.18673475178158694,
                -0.057401117040467554,
                -0.018222029377072877,
                -0.14478291299555832,
                -0.09347218874889653,
                0.03599917814082581,
                0.06295116138444014,
                0.018336146574882087,
                0.12509211648071086,
                0.39719261620377055,
                0.4174751942128455,
                0.20480703035569697,
                0.23048933852823947,
                0.04176042987069777,
                0.008150072129324452,
                0.06878505449336646,
                -0.15573100785858623,
                0.10367205876477088,
                -0.1642745113116856,
                -0.4380246534593814,
                -0.3023176778685549,
                -0.031872793804654034,
                -0.05205826137027549,
                0.024640047985227002,
                -0.04289099440149735,
                -0.026041198008820432,
                0.061012044183157206,
                0.06946060049006263,
                -0.032352913377520325,
                -0.20646519014731907,
                -0.25779816449394677,
                -0.1945714824289613,
                -0.25103367303029706,
                -0.11439648745044104,
                -0.34967966241190485,
                -0.3479396965196506,
                -0.0519954428626547,
                0.33598555730215757,
                0.2836503958867985,
                0.1938902535410091,
                0.06872533050163422,
                0.16182291392630013,
                0.10966195763659059,
                -0.011100236385719069,
                -0.19000189310626187,
                -0.037317954160127904,
                -0.1541886402775973,
                -0.3124932427935359,
                -0.2978046364833625,
                -0.03353728666717065,
                -0.0015000600352130429,
                0.034444110045687815,
                -0.03281323522119629,
                0.030551005557440985,
                0.038527204455339616,
                -0.02478015012432321,
                -0.10697336291553416,
                -0.23017736950711606,
                -0.3302841240614501,
                -0.2655993662381859,
                -0.34305040067810816,
                -0.33616704951054893,
                -0.2317391154107244,
                -0.38366864844410903,
                -0.5900407858986683,
                -0.18682938836903884,
                0.16191602573849864,
                0.16249421686121152,
                0.1149173826312913,
                0.09089398640882294,
                0.0031309683647520693,
                0.1312026650914187,
                -0.045046112022511936,
                -0.08443733020446316,
                -0.06910561620300883,
                -0.11327669508615042,
                -0.18755203491054678,
                -0.05255071441398578,
                0.04417208385463784,
                -0.04913739344421888,
                0.0019406353474016708,
                -0.025149581578175175,
                0.0007336507420876927,
                -0.21102727831059886,
                -0.34458551841988444,
                -0.5510524407963512,
                -0.6049782994893701,
                -0.41231676413170426,
                -0.3069597498720391,
                -0.48768350727773613,
                -0.3106870427056962,
                -0.22228021748099905,
                -0.5729968679035733,
                -0.5336569248419065,
                -0.31477784935684033,
                -0.036426867753062336,
                -0.031650331071232475,
                -0.001809643056343649,
                0.10488443432098976,
                0.08781345149282307,
                0.14899321821562,
                0.19601910828959798,
                0.26787979487799707,
                0.08071903534277296,
                -0.15654124173935502,
                0.005304941901899803,
                0.017970631194182903,
                -0.032489803620180766,
                -0.04984921179171252,
                -0.0600710359329198,
                -0.02377253642503567,
                -0.3599093644438082,
                -0.5241891257513193,
                -0.6901992529600322,
                -0.5671291524215282,
                -0.29694097593928037,
                -0.2942230518460995,
                -0.29849196150849394,
                -0.3490662937096098,
                -0.12522023049033423,
                -0.3683130567362153,
                -0.45283805544573213,
                -0.28901483301684816,
                -0.014236378512653518,
                -0.02463048100050354,
                -0.17722858462477886,
                -0.24027615247107567,
                -0.1273253128122119,
                -0.0174123436191331,
                0.261437449605107,
                0.27563123968844283,
                0.2166604766304619,
                0.008022164999122297,
                -0.056098231163262124,
                0.04157091731078777,
                -0.042121088400220476,
                0.01930298340009723,
                0.02569544561076051,
                -0.11328516798619166,
                -0.31237489509614474,
                -0.41812420938326933,
                -0.4432382855132789,
                -0.24992476188840104,
                -0.276003960823448,
                -0.15608905364443199,
                -0.16123856220720245,
                -0.19224493101275708,
                -0.10439066067995334,
                -0.2126010637516181,
                -0.17941484249490966,
                -0.3687212346581925,
                -0.23699715595675014,
                -0.10844182223963438,
                -0.03286212884538637,
                -0.18966533745131603,
                -0.2866618921721701,
                -0.006133419121580954,
                0.11515744844658564,
                0.29718536715976496,
                0.29017868204331704,
                0.11275603189669658,
                0.05107714415793863,
                0.0002285811451554714,
                0.025500654236451065,
                0.019054744736360707,
                -0.03180981689825487,
                -0.08469333455999838,
                -0.12862444076718546,
                0.0011092998032029148,
                -0.0034733731083040537,
                0.15582827678515312,
                0.07758291020647391,
                0.020402061901890832,
                0.0896915285147218,
                5.71406855548123e-05,
                -0.06317044129451665,
                -0.13898296164312768,
                -0.12383938103585156,
                -0.3594759354431621,
                -0.2396771765566465,
                -0.17088791352721217,
                0.08761174746131312,
                -0.04804157075553266,
                -0.07071580021693108,
                -0.18144864917416956,
                -0.02420965241928876,
                0.27506706561318994,
                0.22125937726993136,
                0.042425208000373964,
                0.11243495651484253,
                -0.02262007995302312,
                -0.011876739185639192,
                -0.04529063165032624,
                -0.019788087115715412,
                0.032064421674804895,
                0.11960292467143525,
                0.4428334100946815,
                0.3066785549292663,
                0.2446595161134637,
                0.24610792779260252,
                0.07292940353915431,
                0.057381704193281445,
                -0.13224732316828913,
                -0.17835788699767835,
                -0.03359364568097266,
                -0.19694535199895724,
                -0.2482547123041958,
                0.02370765968485714,
                -0.003889537856189714,
                -0.10507619606232331,
                -0.17893681357064167,
                0.10739321113270482,
                -0.07317740434851458,
                -0.08587600337797559,
                0.1711228596938667,
                0.2860775150219782,
                0.19730002479153821,
                0.03774437174163546,
                -0.0064935401127731145,
                0.01991430995285478,
                0.04072623511564452,
                -0.006745318197015215,
                0.016053474714507878,
                0.1686390912273821,
                0.38427113702747645,
                0.4232740937097845,
                0.11902009769753051,
                0.028440897906939752,
                0.2252786415698987,
                -0.11723154767140369,
                -0.15612016934637654,
                -0.12005321679264414,
                -0.05248656885061005,
                -0.2979338064165536,
                -0.1103006980074035,
                -0.1452621778167968,
                -0.006335060599245561,
                0.0025871275201544233,
                0.13211857668391308,
                0.15434988667800675,
                0.0815628553705195,
                0.01514441030420176,
                0.07782182131567528,
                0.2383499986909675,
                0.20147558899383136,
                0.057232375020163595,
                -0.03466523862762072,
                -0.03547359795844427,
                -0.037203571597136637,
                0.07622241662683356,
                0.10902282881975267,
                0.12884426587800737,
                0.24103279632795724,
                0.12257830929409072,
                0.11028423123901647,
                -0.1513537478487991,
                -0.1228348215042528,
                0.09721262614454441,
                -0.08015911165939793,
                -0.0911820663006181,
                -0.23864499545294784,
                -0.23378503165482925,
                -0.060991778423794774,
                -0.0856122333545548,
                0.15622099615120405,
                0.03757790295455424,
                0.07808097737916384,
                0.14159606549692072,
                -0.1220483466386431,
                0.1461236020646971,
                0.19079350718863872,
                0.2096527665264529,
                0.348513988926076,
                0.011547905678587314,
                0.020078587045693177,
                -0.017539372380105972,
                0.04695559153752921,
                -0.01336961389868964,
                0.1303726670365475,
                0.12647452134298856,
                0.2913238151151136,
                0.10724074913320394,
                0.029853707300293925,
                -0.1195376015750665,
                -0.3522926590865818,
                -0.2475500835533241,
                -0.26065731235907474,
                0.039964935023120776,
                -0.19934982890726768,
                -0.14532128444779582,
                -0.00882063151142383,
                0.047347122317735496,
                0.12768358621769918,
                0.19570784153079943,
                0.17929505697468812,
                -0.023953933829866776,
                0.03849332279386035,
                0.35791387223357246,
                0.3176343253422883,
                0.24572032387924464,
                0.2592362556825318,
                0.04195948456237695,
                0.05414021474823025,
                -0.04964782696410055,
                0.05150477936235146,
                0.02904474127061053,
                0.05146122662743401,
                0.18086175667067714,
                0.1709450635128352,
                0.26013007890458695,
                0.13576403420706326,
                0.034610580881659594,
                -0.003675549933054504,
                0.00046218392136085086,
                -0.05684053983677986,
                0.002921189995092953,
                0.05679736166569755,
                -0.07545421234722394,
                0.047756365811384045,
                0.1439038644692829,
                0.2265926466117343,
                0.25875230240835995,
                0.2093011565186886,
                0.19093990006793937,
                0.1837093611266512,
                0.30865926733491167,
                0.1108672652738256,
                0.2520391501623267,
                0.19448253062520116,
                0.07935387535037361,
                0.04459047778718946,
                -0.017343984805943263,
                0.0014936510675464091,
                0.058873943924118065,
                0.20035951002402133,
                0.3516956597956388,
                0.31806277315319653,
                0.3284370864026878,
                0.35002380840328845,
                0.2322251326152842,
                0.41353671073916165,
                0.15130572665044414,
                0.28357628572172183,
                0.23670377982977842,
                0.13689685347155384,
                0.1079609573652089,
                0.18788436857958316,
                0.16387223719348262,
                -0.0526336783251356,
                0.10691327616672168,
                0.16987329913268442,
                0.16983959116505498,
                0.21245993691694393,
                0.08578830362792572,
                0.14656981079193523,
                0.2927604380882704,
                0.14363740362139837,
                -0.005443912781899501,
                0.0017527328407226253,
                -0.002573055648290963,
                -0.02974885913033668,
                0.042904772801758535,
                0.14442197204360394,
                0.27504730469412064,
                0.38957017172409203,
                0.15767501198825803,
                0.10201732860043482,
                0.23023153266334312,
                0.1337724918277924,
                0.11270870367292979,
                0.22479777353414154,
                0.16091328925654816,
                -0.025595170278174133,
                -0.0756263145861955,
                0.05084912295348691,
                0.05719301199235795,
                -0.04160003982261271,
                0.17280575401446036,
                0.12722594426452039,
                -0.015318306991389044,
                0.016580177611161134,
                0.040406696701962654,
                0.13486053062785025,
                0.22179146473745331,
                0.05724550705087724,
                0.033702270100512105,
                0.01538552781527485,
                0.032484788864990885,
                -0.009688824170748678,
                0.007255375847996807,
                0.19006943656182035,
                0.2190333325530474,
                0.3435882670126883,
                0.15625859331639735,
                0.1096895216893525,
                0.20252086024418317,
                0.19341586203946604,
                -0.03047872267895073,
                0.07462339859064787,
                0.1426838866591207,
                0.08692135511489808,
                -0.09958665890219259,
                -0.07123334389636896,
                -0.014185468477983238,
                -0.03631979889407326,
                -0.010902558519150762,
                0.15040700279148483,
                0.15539306889548224,
                0.15432308461783403,
                0.14561919144769897,
                0.034284940150931045,
                -0.0152569991942522,
                0.02442076212458254,
                0.040209034258908684,
                0.02837833013690686,
                -0.029139476119598814,
                0.02676848122624336,
                -0.017115078383585735,
                0.10948611878508678,
                0.09285406904833453,
                0.11447116892254841,
                0.22199453609403397,
                0.15369928886526582,
                -0.09169478560538719,
                0.2726550432658625,
                0.14045157327831126,
                0.026411782921049058,
                -0.10014093253502879,
                0.05639688560164747,
                -0.05809668609876215,
                0.171819371610028,
                -0.04627444927481688,
                -0.15046210555479034,
                0.12552829184664624,
                0.16769015391557385,
                0.031056608684426328,
                0.08039036103008469,
                0.02075636775509586,
                0.010718417280891209,
                -0.010878592056537165,
                -0.013237571800553514,
                -0.05002484372116048,
                -0.012651887577244204,
                0.01632480133934785,
                0.012663090324866073,
                0.0436039276728565,
                0.042472318722300846,
                0.0017778023130855742,
                -0.0376672168020431,
                0.05954916278985572,
                0.18206958906329856,
                0.048081115582745464,
                -0.050601831249930694,
                -0.00395369125428722,
                0.13993047512813084,
                0.1872454411741716,
                0.05073434891162532,
                0.1866503589855398,
                0.000418370628450504,
                -0.050615108140407206,
                -0.24719125811368578,
                -0.15849756338492393,
                -0.31124342638387426,
                -0.14560407827220886,
                -0.0632461490073981,
                -0.013288018446084729,
                0.005448865858662652,
                0.012975568798416607,
                0.04898685645268466,
                0.02848847040722492,
                0.02227664356069762,
                0.01347693266473509,
                -0.01945795034051479,
                0.004153779393517349,
                -0.02607485957876853,
                -0.06596005497318264,
                -0.13081067642463565,
                -0.09981530377916777,
                0.018367551440980543,
                0.03042423417922363,
                0.1525494708644426,
                0.11763615002168848,
                0.19954815006124682,
                0.0885873264143622,
                0.07958762238298984,
                -0.0759101222317583,
                -0.10917606017384307,
                -0.2618736535910135,
                -0.29801770401782,
                -0.2832101796486709,
                -0.21572459204020603,
                -0.1980609307069351,
                -0.22091256161879178,
                -0.10338361680373659,
                -0.08622325679308358,
                0.032846550363966096,
                0.01794704090007029,
                -0.029823778177720008,
                0.04223366457420052,
                0.0080489854042778,
                -0.004454930534183998,
                0.014379698288912855,
                -0.02484720411829139,
                0.005152117729470519,
                -0.04415716937015158,
                -0.04148226687410079,
                -0.0022443320677681864,
                -0.04027832958959897,
                0.04248796137419996,
                0.03550911750736194,
                -0.004172037860879224,
                -0.008883465258870647,
                -0.016383240314751114,
                0.003487960359974414,
                0.014112678968090044,
                -0.07667817400677637,
                -0.019163125863187146,
                0.04628035104504739,
                -0.025893802607808204,
                -0.09763873513089631,
                -0.0359919956060835,
                0.0182365982018925,
                -0.012751365441736424,
                -0.008627896147738335,
                0.044104988447260705,
                0.02244397521442463,
                -0.04718409024059905,
                -0.007480588580518123,
                -0.04102285349387076,
                0.04834060228326068,
                0.007597606499307012,
                0.014513678401333434,
                -0.013691336462362584,
                0.01703220155331433,
                0.007774747126929808,
                0.028223680184565874,
                0.04061498168952968,
                -0.010102624645402528,
                0.038888895468359504,
                -0.044565155235978204,
                0.0154415605962379,
                -0.03398470649815601,
                -0.00187200446510113,
                0.02113584293283212,
                0.019981320149160715,
                0.019091994460682937,
                -0.003785124735631389,
                -0.030956785964115368,
                -0.03158063381358681,
                -0.001261887609511883,
                -0.007278330995950814,
                0.047981216620881624,
                -0.020119821928150153,
                -0.04253046228557716,
                0.022918135387336426
            ],
            [
                0.028495330064881412,
                -0.0255522917314626,
                -0.046814409643903064,
                -0.009402304477218078,
                0.03815859182017662,
                -0.006869664950054831,
                -0.021810594338552983,
                0.04397213123397758,
                0.027502976565358474,
                0.011211330365970426,
                -0.05023720244188029,
                0.043588591262201264,
                0.016087530909845802,
                -0.03105773191383278,
                -0.04800718866085853,
                -0.04975321329094023,
                0.04317417765263978,
                0.01951137997636731,
                0.020723030771041435,
                0.009704029302516896,
                0.0037613688174588378,
                -0.004487243064971759,
                0.010121042535115296,
                0.015564625122310223,
                -0.012824919409659373,
                0.01699419780807513,
                -0.004355308455069283,
                -0.04191458249031955,
                -0.026953520943129756,
                -0.042287842017189374,
                -0.017978963708096526,
                0.011245767826953981,
                -0.013376324293097049,
                0.022832541439639132,
                0.014967102862278038,
                -0.04206812219770521,
                -0.039497273983254796,
                -0.04993491487419132,
                -0.04297166644855271,
                -0.0451912884230317,
                -0.08123055619495312,
                -0.03017200839856236,
                -0.005079718275059242,
                -0.04495398505228664,
                -0.03002736303318444,
                -0.0005573537779249315,
                0.0005937657512331978,
                0.008607627272768066,
                -0.014565596378712789,
                -0.07221291341176922,
                -0.05922571890114146,
                -0.04760732759966769,
                0.0017311263919291692,
                0.02576961557256268,
                -0.047247532728916235,
                -0.00437521369671344,
                0.032809523178825205,
                0.017031762121703438,
                0.004638377848211327,
                0.008971336861489092,
                0.039565862877631294,
                0.007336228455181438,
                -0.014360557074684789,
                -0.0015201261405637166,
                -0.0412521973003299,
                -0.007861059983038836,
                -0.07619632812567113,
                -0.08828924786499054,
                -0.0849865915848742,
                -0.11969521103352412,
                0.009978662347348174,
                0.030493575893727545,
                -0.010301617194497143,
                -0.04964993002598575,
                -0.024680734866405738,
                -0.12106780067291516,
                -0.09719587240072367,
                -0.15125456647189214,
                -0.16132607261983797,
                -0.05591074119555336,
                0.005257316697860083,
                -0.017069720786745644,
                -0.030202522304331205,
                0.013925533947962941,
                0.026339077476061463,
                -0.014231972799332082,
                0.021101204329406126,
                0.00884267994508305,
                0.024652214771386453,
                -0.039118136157571676,
                0.014933870183183028,
                -0.056592345242499856,
                -0.09706975536126919,
                -0.11742071877231612,
                -0.22913514995143958,
                -0.177999380674492,
                -0.10136618800081185,
                -0.05762341365762991,
                -0.16369753356011213,
                -0.11888741019067646,
                -0.1574245842507687,
                -0.16192947340493447,
                -0.10008253081275637,
                -0.1452665501967952,
                -0.24792621693478234,
                -0.2749328153429321,
                -0.22985520128303555,
                -0.17098847770992415,
                -0.10247393198989023,
                -0.04496389986266911,
                -0.0069940279486594235,
                0.04370581899291382,
                0.02658367998379247,
                -0.01902040244937451,
                0.03915139901825748,
                0.019185241317183018,
                -0.027783976521504133,
                -0.05286185258966999,
                0.05763690893389427,
                -0.033809836802429945,
                -0.011958502823571275,
                -0.04495873811646277,
                -0.06447060918771544,
                -0.04306193634841926,
                -0.08626659107305389,
                -0.038735043516815997,
                -0.09283411350153872,
                -0.09736862362374038,
                0.003173742025004822,
                -0.1419873042210131,
                -0.2402154333367404,
                -0.342751720637171,
                -0.3267765741691004,
                -0.2966214158139954,
                -0.20951316254102523,
                -0.14173014102032067,
                -0.019774938247350146,
                -0.04139413134768819,
                -0.03855917114546387,
                0.01155998983109724,
                0.023398538572955853,
                -0.02585662905796822,
                0.0454091019003044,
                0.020636321597604416,
                -0.0747898866852474,
                -0.010787860056279904,
                -0.04077698603005801,
                0.022239920992221652,
                0.02590739660485412,
                0.1279163837852708,
                -0.01520294048409406,
                0.025365387091679504,
                -0.03682083420935781,
                -0.0073538425079084395,
                -0.024213327955031463,
                0.0019185312048930236,
                0.32212724729707376,
                0.167517783565708,
                0.018114758800563676,
                -0.10748174394878014,
                -0.1354251635529736,
                -0.07037607575232979,
                -0.03561838370166584,
                0.08005179301009009,
                0.04431670942933093,
                -0.020788794006972734,
                0.05082374877928311,
                0.04045637855077551,
                0.020296799972248154,
                -0.0059832926578562125,
                -0.028370034029402674,
                -0.008516172690907452,
                -0.061528104312257866,
                -0.07632611024610217,
                -0.088138379279525,
                -0.11621509214833885,
                -0.024157971804523816,
                0.017522320931062332,
                -0.11666303856599923,
                -0.1519952829336637,
                -0.14028319184665078,
                -0.16875532592598802,
                -0.18950676694704305,
                -0.2071968084137176,
                -0.037371407880521845,
                -0.16540796289058202,
                -0.21340476789084614,
                -0.05735931749437041,
                -0.002393352344114591,
                -0.04914210517798622,
                0.19447351201686167,
                0.32713471338239936,
                0.31919979141990956,
                0.15880997781065215,
                0.05153123181956902,
                -0.04518292462849123,
                -0.03673348993538321,
                0.020672187644639815,
                0.008015410278576657,
                -0.017849508469521654,
                -0.13677369007421933,
                -0.06829451096577094,
                -0.07448399097457022,
                0.032578833030375065,
                0.0737887816402656,
                -0.08898464131655225,
                -0.052550070399710005,
                -0.07484652170601742,
                -0.3388577292218043,
                -0.32716467686474365,
                -0.11897788344118368,
                -0.19186086444602987,
                -0.1358113704213715,
                -0.007163353601132214,
                -0.17308721727828788,
                -0.03699551865228331,
                0.08244190129083775,
                0.15006076698781742,
                0.257791753311151,
                0.4244820251959126,
                0.413316390051486,
                0.27252535880755235,
                0.0379571060342514,
                -0.03045158514483193,
                -0.027951762486320125,
                0.008514485910270146,
                0.04374097804389738,
                -0.004220701728306329,
                -0.13341653133568038,
                -0.015657656210039513,
                -0.04798673104179886,
                0.051044969684765254,
                0.055024277143328956,
                0.029094803563845636,
                0.06581333730317561,
                -0.020042292047024214,
                -0.06488391694438779,
                -0.20888300182940503,
                -0.23456787532364587,
                -0.009849699002443035,
                -0.18005011817329547,
                -0.09062542425499572,
                0.10995986635267457,
                0.14799780788467262,
                0.14078061813420523,
                0.13728718634038406,
                0.0885508523499523,
                0.4252051467459954,
                0.49906325192878764,
                0.3402813944638354,
                0.07673575736095412,
                0.055151318243077306,
                -0.005029633767556017,
                0.04429107971225749,
                -0.037652109045137445,
                -0.004003680504951689,
                -0.042876638514777875,
                -0.021834879714378176,
                -0.008579948064481637,
                0.028987941963099784,
                0.011281964143729246,
                0.08510867027415936,
                -0.030556124906426688,
                0.04856532792848252,
                -0.1467590068232788,
                -0.24414311321275453,
                -0.3939312085926567,
                -0.14757697518245597,
                0.03413387382552898,
                0.0834417153973234,
                0.07668468630986706,
                0.22936441176317382,
                0.15739097151301443,
                0.1810177477907733,
                0.11267307559096998,
                0.3120186275852529,
                0.5107266279134753,
                0.4471764751289431,
                0.12276037552110357,
                0.04574522938606508,
                -0.044368106316262326,
                0.04650552208334219,
                0.01901819141332471,
                0.007972372268984337,
                -0.02366257623527051,
                -0.039825589246529444,
                -0.039054394620868745,
                0.08103796062997484,
                0.18299555918144622,
                0.1379041168248981,
                0.15688578815973508,
                0.08987801446585267,
                -0.03816076396601852,
                -0.3023590973859809,
                -0.33876689243002184,
                0.07371881086994617,
                0.06638128612515995,
                -0.03953783981129882,
                -0.03774476228441718,
                -0.03160199532100375,
                -0.11414394621146942,
                0.023708341455995374,
                0.1689573483317981,
                0.10613659177789662,
                0.29887582307530686,
                0.4477094921164486,
                0.22121212180480637,
                -0.02295147336916222,
                -0.040405831137111534,
                -0.01906892807635414,
                -0.005584106140752558,
                0.02004152313714306,
                0.07578785292245678,
                -0.048003318331429866,
                -0.04632305786727664,
                0.02736109853057045,
                0.18994603260868112,
                0.03266192309367198,
                0.036160825507095484,
                -0.01015731849591701,
                0.06690030546462143,
                -0.1301463428772798,
                -0.15889587191114724,
                -0.009439527522181756,
                0.030521020875151364,
                -0.07346716950291518,
                -0.12300716402526875,
                -0.16407132355308018,
                -0.2655510303788985,
                -0.20389727719627562,
                -0.06807136716088091,
                -0.09507662302375001,
                -0.003674300004919566,
                0.24727723683337052,
                0.12136357943402838,
                0.05842253650979687,
                0.01702886416706969,
                -0.030305183333208963,
                -0.040104557890579116,
                -0.029517599133943445,
                -0.04346426136327535,
                0.007570469982200511,
                -0.11396115076256912,
                -0.14024959205852006,
                -0.0593490982232507,
                0.09474823457640683,
                0.16909173550878226,
                0.08031178096867894,
                0.3120001130743276,
                0.19566198080577815,
                -0.07372685752005119,
                0.09184553792371482,
                -0.00543764639674695,
                -0.12910205180256018,
                -0.15909210288567563,
                -0.06718291403181005,
                -0.11617996179045957,
                -0.23650001875521695,
                -0.32298305915868875,
                -0.3971664373900042,
                -0.20546292787871606,
                0.07527156258106676,
                0.07080456599230663,
                0.02705898615493081,
                0.02723809552171051,
                -0.020356507361518818,
                -0.04310013229671517,
                0.031459549630934454,
                -0.07147886182116671,
                0.033064597313871756,
                0.06982535619624701,
                -0.026239464897342926,
                0.08635264361613312,
                0.13089362273214514,
                0.13206587420571178,
                0.4321362786717054,
                0.41549243783253886,
                0.1707691053431805,
                0.1104889918052945,
                -0.035907466538492396,
                0.02878740579206422,
                0.09735537236464382,
                -0.0006755875527096934,
                -0.14183997042611654,
                0.11986850084384376,
                -0.02700244974973247,
                -0.25523396078345245,
                -0.2837732216496919,
                -0.06609500721945712,
                0.11960825207315001,
                0.16304733011296796,
                0.04624573118834517,
                0.010993869094265777,
                0.019075353463179512,
                0.015377754941876452,
                -0.016861433572260415,
                0.02200622377590844,
                0.12001225856506821,
                0.12104846430861721,
                0.12955739475586403,
                0.020998690353960944,
                0.1943572788569992,
                0.28725007942784003,
                0.2292946669569734,
                0.2668923804600027,
                0.28770466025704605,
                -0.0009223963884358244,
                0.008812943850432528,
                0.12561342788671467,
                0.19559612504292495,
                0.023925120911678033,
                0.05231486048405541,
                -0.03342181769601328,
                -0.05995218003087129,
                -0.11329786605600511,
                -0.05050057580723893,
                0.006223874750457494,
                0.08683581640881576,
                0.0807589785811973,
                -0.019891000244191756,
                -0.0035113019375355606,
                0.017303300097137736,
                0.03059953920980639,
                0.06439150247709956,
                0.011868132083456088,
                0.0140550908310764,
                0.1473498280154577,
                0.06800807523264041,
                0.10910072044825564,
                0.19762812378940617,
                0.09512932839630997,
                0.07067413149490914,
                0.2864414209444004,
                0.07530993469836561,
                0.0037592103980849056,
                0.15649356439012618,
                0.08317129804722566,
                -0.016075341490950322,
                -0.06809666756794806,
                0.07230588300350628,
                -0.22146081193669026,
                -0.0029158215555102358,
                0.02709244107869227,
                0.025453101922785933,
                -0.06854362927116693,
                0.10840484449958698,
                0.023851897010094124,
                -0.033619587835697455,
                0.02027095123997737,
                0.01195836777051514,
                -0.05466988591382439,
                0.04790908199254613,
                0.016038706961539074,
                -0.0012195529142085219,
                -0.00477640588106508,
                -0.10822492777929915,
                0.0911950129860176,
                0.06055839194467764,
                -0.03248250221361145,
                0.0211911125521913,
                0.33522986535303334,
                0.26903629090644493,
                0.06761838516502344,
                0.04427947699215726,
                0.07225650373067388,
                0.14009100556556464,
                -0.004573818834833713,
                -0.060099274155565575,
                -0.029622162685899126,
                0.036103217522711804,
                0.12431651235607401,
                0.12800967849271433,
                0.049328638897404395,
                0.08878219011306017,
                0.019441172506399342,
                -0.02581353665349826,
                0.04978907449201201,
                -0.00027235090681241957,
                0.041365946957352136,
                0.020329026601114752,
                0.11115684275138554,
                0.09891761229376453,
                0.15473696399658785,
                -0.05137082306838007,
                0.10487727141060729,
                0.20572660757817765,
                0.03092604728335884,
                0.04031899569688235,
                0.22891452508142657,
                0.18049503800621472,
                0.16879668875416032,
                0.056221771454538376,
                0.1153389024024298,
                0.026615879707104398,
                -0.040330822537965993,
                -0.17576410335252843,
                0.003342247177133788,
                -0.09304012711819576,
                -0.10267574422933977,
                0.0004626558459750808,
                0.06317401113089254,
                0.1277422236830274,
                0.04401325621769582,
                -0.007691248731910191,
                -0.007131926944977987,
                -0.01077803912464017,
                -0.024587509980146086,
                -0.07257944433403951,
                0.13548741614612708,
                0.2545731035068525,
                0.2606386574190366,
                0.19806715450931758,
                0.17419240858725055,
                0.0782782871581115,
                -0.06072246479191261,
                -0.11393613355645048,
                0.17859816708759044,
                0.19969604263550558,
                0.1490075028789805,
                0.0045923387865146595,
                -0.028083956498399648,
                -0.011743377226485713,
                -0.18228411626207935,
                -0.02180830699631524,
                0.06369351324640016,
                -0.1152866701532562,
                -0.09978065594816159,
                0.12315974678977919,
                0.16885583077626978,
                0.03860778166556656,
                -0.011495069772279286,
                0.03481666291425197,
                0.029569020061934924,
                0.008783950643614051,
                0.002173820274505111,
                -0.07889619156522955,
                0.0352760037800264,
                0.20294262227475451,
                0.24783776490520154,
                0.07486210536445165,
                0.09627807374399688,
                0.11810731379941701,
                -0.006803225506787244,
                -0.09402192927364172,
                -0.2850585613405734,
                -0.013668246212535477,
                -0.12186491492610983,
                -0.11992247453396152,
                -0.1186304472939167,
                -0.15338488362599428,
                -0.03308472762757622,
                -0.07279748167459543,
                -0.16285803807230234,
                -0.13173858907667202,
                0.00232068196060978,
                0.1054339501163294,
                0.12090125113563883,
                0.06625131259050893,
                0.03182052831716331,
                0.006183409272885546,
                0.014797784496017284,
                0.006365278931202891,
                0.014591473112821596,
                -0.11654494979518036,
                -0.045247311493287375,
                0.10795076632305448,
                0.1318112258584071,
                0.19542795615281502,
                0.16583015168974952,
                0.14289618849298666,
                -0.02840168788802118,
                0.1303497165636305,
                -0.11374240035231213,
                -0.13404951094768588,
                -0.15942108073718675,
                -0.18395736052233286,
                -0.0715718017559476,
                0.00422012708151149,
                0.027965008779404645,
                -0.02091169121937774,
                -0.015221971592563756,
                -0.0038311265953627407,
                0.14436490669047997,
                0.184240918310426,
                0.1124242831227038,
                0.02533802231230809,
                0.006194391821753929,
                0.030493925041046255,
                0.02460434144856868,
                0.03709977540565604,
                0.029575666007482973,
                -0.0767271353466289,
                -0.01984528058340705,
                -0.017371834924804905,
                0.02906876756230961,
                0.10042546769375447,
                0.058415847618930906,
                -0.024742162270726422,
                0.01381251118527214,
                -0.02416590928059869,
                -0.048796402873607155,
                -0.20424153110859392,
                -0.10548514132273022,
                -0.12421359259152534,
                -0.11248285772958562,
                -0.019087308345172627,
                -0.19553087686058154,
                -0.07235087702653462,
                0.1401251115471598,
                0.13100242345812335,
                0.219684165487847,
                0.10597433065211409,
                0.015669852757186402,
                0.023041390168459793,
                -0.019811741275026738,
                -0.007047281136408214,
                0.03529214752457882,
                -0.048278967216627305,
                0.017249991906078285,
                0.026973639050372814,
                -0.01870225545112907,
                -0.11434547767008298,
                -0.004250563902725463,
                -0.0028538132883951617,
                -0.04005851716544655,
                0.02159343497344884,
                -0.0869856273095945,
                0.13039582967183175,
                0.06702145566760015,
                0.020849609967087058,
                -0.03023209511926113,
                -0.09031570932363663,
                -0.10188644066578677,
                0.03409096994092845,
                0.09197100691357606,
                0.10008253373084387,
                0.08877499106363734,
                0.14844792158293119,
                0.05439547141670653,
                0.037856548306533906,
                0.056431011923896504,
                0.009252641755057734,
                -0.04278390733665629,
                0.021376291921235753,
                0.007054321006781154,
                -0.03521536695299941,
                0.012373269318277294,
                0.0016664511803949336,
                0.017490262623475195,
                -0.10318622809882447,
                -0.14768530962185447,
                -0.09998347471491495,
                -0.06249113183438058,
                0.1412125177039699,
                0.19076777382276008,
                0.15681106488091312,
                0.2317671774968904,
                0.07344623113457809,
                0.10661817586878354,
                0.0010183503736996102,
                0.2556262280757861,
                0.08397859620732794,
                0.08142470016913589,
                0.02292973706429478,
                0.019395129447732997,
                -0.054787130452136894,
                -0.05028915056186195,
                -0.10843008184594809,
                -0.024499445691235064,
                -0.03642283945557217,
                0.03735729138854791,
                0.04539321453947275,
                -0.02374281472012588,
                -0.04026730244143002,
                -0.022575560932538014,
                -0.0392934474249746,
                -0.10589006610671077,
                -0.08252426732469106,
                -0.206489970940102,
                -0.25450312693003835,
                -0.1888594864977852,
                -0.019180554850571484,
                -0.06291353209130632,
                0.00233043122625706,
                -0.01886932574705453,
                0.0980458378406823,
                0.1143933325674342,
                0.009296964582090441,
                0.013600458358744478,
                -0.08410154909204491,
                0.052692278223191516,
                0.06481924133329782,
                -0.025242449442561283,
                -0.17761443987474343,
                -0.14702332492685075,
                -0.09178085353977311,
                -0.03492128415432055,
                0.039246513482534225,
                0.0031645999897432987,
                -0.019464976388459548,
                0.013724719269386322,
                -0.001754859687310699,
                0.04820334673152464,
                -0.02173730545257619,
                -0.01615815002898423,
                -0.07299260013529212,
                -0.1685372589378937,
                -0.3038923261100925,
                -0.345610729898349,
                -0.4134376503979862,
                -0.26514338459446624,
                -0.23029060456666042,
                -0.16749186613267744,
                -0.17753189646794493,
                -0.2152074949405563,
                -0.13563876796531404,
                -0.14635084321791483,
                -0.19578337512614205,
                -0.1329834971450409,
                -0.14320038142191746,
                -0.19200815413279818,
                -0.10082341969111863,
                -0.031026677672299437,
                -0.03300042296977628,
                0.028374405565834877,
                0.019018703461095892,
                0.016504855101907346,
                0.033632363375264755,
                -0.0503948756915069,
                -0.03063794218384559,
                -0.021501948564854496,
                -0.005813016335288003,
                -0.07007876536173209,
                -0.027699421549844082,
                -0.0748528161564675,
                -0.08171174811352837,
                -0.20129845241122488,
                -0.2014915821267253,
                -0.2640569269046864,
                -0.25989666682431184,
                -0.19280175089498466,
                -0.1771926793035646,
                -0.2743875777777677,
                -0.18367210355284733,
                -0.13947677407472134,
                -0.1718246992389684,
                -0.14876508971159044,
                -0.13331504233299185,
                -0.04589316533598029,
                -0.038779493294171304,
                0.0139696923765207,
                -0.015704339970469203,
                0.04222241751329525,
                -0.003072061566788978,
                -0.028692417066930966,
                0.0014773363788883678,
                0.014545888044720977,
                -0.018241367965993315,
                -0.039718557217870695,
                -0.004357293123368147,
                -0.0012307006985625858,
                0.02761417432045949,
                -0.04596460228384551,
                0.0005148026909594892,
                -0.05529123976107205,
                0.004122967248864781,
                -0.03576881871726572,
                0.029839280373708806,
                -0.02040738855967987,
                -0.046573658023172704,
                -0.01386803601773707,
                0.036630966730099516,
                0.006985095937662021,
                -0.03951831768007527,
                -0.04400408024362094,
                -0.03437268109428311,
                0.0028859696638702066,
                -0.05983273290211237,
                -0.024840174625578772,
                -0.006993204604145007,
                -0.006476793553895195,
                -0.01932848138761264,
                0.046158071337736604,
                0.0167690613852998
            ],
            [
                0.0015753576500294325,
                -0.013521214018383833,
                -0.013009453704796892,
                -0.022891734710865492,
                0.004744005287484011,
                0.035773240407361274,
                -0.04654759675724654,
                0.025384929442924177,
                0.02866448141931783,
                -0.010634481367712667,
                0.024626942739276965,
                -0.011183694573153033,
                -0.018138969459825106,
                -0.025604151956036783,
                0.030687594268214748,
                -0.047570017602876664,
                -0.02635511009301728,
                -0.020065612458562816,
                0.0108723489791554,
                -0.007493559608072332,
                0.016471702489391622,
                -0.03605624064625312,
                -0.015813553364160453,
                0.002960779186988817,
                0.012380987356790059,
                -0.023273844544482006,
                -0.024125461161795182,
                -0.0458221377427603,
                0.03259868313974213,
                -0.047684624654899865,
                -0.014078016617419281,
                -0.0323343394858375,
                0.00017939244247961554,
                0.04855706182707482,
                -0.00717168513013724,
                0.010091467979030032,
                0.00857899825883921,
                -0.044447669336272276,
                0.024540601252531737,
                0.03154085696835141,
                0.03287729547602559,
                -0.02929756469628089,
                -0.0019899535751310912,
                -0.014373249299575922,
                0.0009494167305128335,
                -0.03561265557813158,
                0.030407348855758576,
                -0.0503628009007262,
                -0.03461607048280232,
                0.01979636951328988,
                -0.023856458695504457,
                0.03741110663671458,
                0.010265741865792856,
                0.025583189626880658,
                -0.027697489237375233,
                0.02539331575204421,
                0.033946493164660106,
                0.00424439350283469,
                -0.04773973528840716,
                -0.01717533181241821,
                0.008993782697559417,
                0.04411956922987066,
                -0.028757201313782975,
                -0.04590370031065975,
                0.015249655956998183,
                0.015647111131906415,
                -0.00026655904229917705,
                0.04848820874792283,
                -0.012006748408343707,
                0.08051757942948722,
                -0.03358163743080023,
                0.005261643120670752,
                0.06361981182290603,
                0.015494475611921172,
                -0.0628464793407203,
                0.022819785594414835,
                -0.020721028788160793,
                0.011882487337417435,
                0.01252393229156162,
                -0.010480739845348945,
                0.041213011341710994,
                0.0114358106515005,
                0.02600848266961902,
                -0.04831873444792194,
                0.011028066853542497,
                0.04497097748456084,
                -0.02605973994257632,
                -0.025120430600285945,
                0.03555670700994213,
                0.035523928327403156,
                -0.021235876274947326,
                -0.005908404567251181,
                0.04009606991998332,
                0.0031192683650870232,
                0.021781581645049553,
                0.018185422312390266,
                -0.02817542193797898,
                -0.033315639414514674,
                -0.03202013351418908,
                -0.08447498163692656,
                -0.09056996181397814,
                -0.12321067280980362,
                -0.15794337842788744,
                -0.13628581106407786,
                -0.18910937923601473,
                -0.15575879709765242,
                -0.10647929545008793,
                -0.05270151942267682,
                -0.08130345804343396,
                -0.016751524300541575,
                -0.0076238020117803664,
                -0.037412859407640255,
                -0.046335055595687895,
                -0.05002805648872485,
                -0.014490233409439432,
                -0.028489663599210648,
                0.0030093566314543774,
                0.0007510811199744059,
                -0.0894320076406734,
                -0.08975334126395669,
                -0.053211424036597295,
                -0.03445980030222917,
                -0.024619310484864654,
                -0.07637915663663264,
                -0.09929839551892995,
                -0.07964413611171382,
                -0.06775398553569686,
                0.01860571487053204,
                0.03552119146318951,
                0.08612796428840838,
                -0.09091065405011167,
                -0.1006303750989533,
                -0.11491115074218845,
                -0.1711404440375812,
                -0.1624706911735038,
                -0.02755376943074132,
                -0.029172311062541246,
                -0.013384636236245629,
                0.0396048842363473,
                0.03301144230388079,
                -0.018448037432987036,
                0.009918942704845737,
                -0.009584379060625857,
                -0.07755364742441133,
                -0.07938981753739532,
                -0.09399972004290044,
                -0.11422532882257054,
                -0.09723617525928603,
                -0.025075148900475,
                0.010106606685139302,
                0.14157815845660646,
                0.17140243061792165,
                0.3232697776391323,
                0.17529770922997645,
                0.2091087989098843,
                0.07888997208693009,
                0.15320265030236113,
                0.283832727308884,
                0.16661600919925443,
                0.03086222582746902,
                0.07691750128671858,
                0.012831411833538916,
                -0.06289779168669722,
                0.033412113116046645,
                -0.047273575211036506,
                0.08959861750672157,
                -0.024712724451430485,
                0.009646070747237383,
                -0.03506370682410713,
                0.04812393008206111,
                0.03255471341995095,
                -0.06166253707429124,
                -0.180571090459329,
                -0.17955241679215658,
                -0.008812041622469517,
                0.04703205104484274,
                0.03178604178982623,
                -0.02703951797047123,
                0.00494810191624009,
                -0.12088934420932296,
                0.04604636347997245,
                -0.047870874376018654,
                -0.08868157752688037,
                0.04755804114981949,
                0.05857168785270819,
                -0.05476223769687656,
                -0.09819751539612757,
                0.15855938241636933,
                0.05346338854533162,
                0.11175766399778721,
                0.05106162014493927,
                0.1091438110827231,
                0.04518481412243245,
                0.04195313570427787,
                -0.02559902002566942,
                -0.02716647992677155,
                0.018050884786454967,
                0.04351190435164636,
                0.008242313300942765,
                0.009315057552525107,
                -0.08979247334777604,
                -0.12925231620507222,
                0.08516136683121646,
                0.17448802818821976,
                0.16602610592135839,
                0.12110653037218543,
                0.12187038627930087,
                0.06269284275345513,
                0.005741011454594681,
                0.04071165816982146,
                -0.11275551266703149,
                0.054024782140297774,
                -0.11545288647885894,
                0.02581903850171049,
                0.13569699854089454,
                0.0188700723275142,
                0.0631723707655164,
                0.24518858974694271,
                0.07408487408374348,
                0.23771338367535533,
                0.2035539082233052,
                0.0485106317832954,
                0.01840624855931039,
                -0.005676819803434574,
                0.046710260775944125,
                0.03657985620820518,
                0.0948709363059342,
                -0.025935170956656775,
                0.024639323894887263,
                0.009316689887041324,
                0.06616867868529097,
                0.20720658089428703,
                0.11627435042552041,
                0.1775576764298922,
                0.0897720358986181,
                0.051943949060914804,
                0.10680657438532075,
                0.011505937274347473,
                0.015135364112852205,
                -0.07578740519543929,
                -0.08574162873870418,
                -0.008913189436869133,
                -0.003924616218947744,
                0.009019934381424137,
                -0.02513070733730529,
                0.08225938763138002,
                0.06510981440049574,
                0.31918145675196585,
                0.19849128408838745,
                -0.03852580688900075,
                -0.04267222973282815,
                -0.005167198326639455,
                -0.024231280517009145,
                0.04545887706166993,
                -0.018434469655191084,
                0.0037013908351362073,
                0.014447837786048598,
                0.1495764555208876,
                0.02363690794339978,
                0.14814801095608196,
                0.07553225493649936,
                0.10510888620699323,
                0.2909600447667044,
                0.3344598400223118,
                0.28029526073183425,
                0.10407571876397635,
                0.10928094300814095,
                -0.19755717663585537,
                -0.049142089134881474,
                -0.03027608663245423,
                -0.05615235576630647,
                -0.03785496401736074,
                -0.012566931196476639,
                0.007516166011024591,
                -0.11104950683897354,
                0.04507984512305227,
                -0.03293858061371707,
                -0.18421701980481583,
                0.00028524807284228276,
                0.04434732247045991,
                -0.026785553398266795,
                0.014459698548745622,
                0.06414874645423109,
                -0.03355406042065822,
                0.027629220540153092,
                0.1988282436373635,
                0.1739059593506119,
                0.14869531780614917,
                0.19734564833738738,
                0.2961798490796754,
                0.17306737175695883,
                0.1615470347880966,
                0.2900743501723033,
                0.2394121839550138,
                0.021920880972514514,
                -0.23900225211852977,
                -0.14699302389065816,
                -0.08924688748946182,
                0.007256392567351403,
                -0.013519909532730027,
                0.0289975324832292,
                0.057016269574557875,
                0.023544739763610854,
                -0.025419563221240008,
                -0.018920846588064772,
                -0.10249130072311424,
                0.00788632778153373,
                0.05320663314809547,
                0.027250948701248664,
                0.05438457358390627,
                0.07420799399333691,
                0.03192592673585946,
                0.06409042759206317,
                0.22513443605592084,
                0.3503335621883999,
                0.24007970864323244,
                0.15892305826012507,
                0.19561654940409032,
                0.16602004487628497,
                0.0577014780860649,
                -0.0034957415018055807,
                -0.1016133310719307,
                -0.02094662137087245,
                -0.38471317392922894,
                -0.20819328600907056,
                -0.18816709374173016,
                -0.08655957965492586,
                0.05326461855463432,
                0.08467939828259903,
                0.24202463783973654,
                0.3508861546188117,
                0.19443240145301305,
                0.1594978111886192,
                -0.024655176165399216,
                0.05339286720256319,
                -0.020073222620685116,
                -0.026641271063294305,
                -0.0291184158841599,
                0.04849123315340744,
                0.13511094407247703,
                0.13195942139868022,
                0.27566978756364185,
                0.36081166059705727,
                0.20511259977110238,
                0.010835641113643341,
                0.002954533519389312,
                -0.05729190031129436,
                -0.23176261926505806,
                -0.3474512052336563,
                -0.17381714898932843,
                -0.16787819134061485,
                -0.1695391367371455,
                -0.168584237299807,
                0.07029612732467148,
                0.040252184352238415,
                0.05695645439954562,
                0.16132040305077566,
                0.2800527571526591,
                0.3901672153933442,
                0.33827685998515683,
                0.20121470335963731,
                0.00281416772464607,
                0.03792876276292467,
                -0.00046127372829999144,
                -0.03143705258750461,
                -0.010740423529022979,
                0.04882949109072626,
                0.12144177084813139,
                0.064037572777378,
                0.1568986771196834,
                0.1361111450847842,
                0.03692679323064455,
                -0.12327775419722012,
                -0.12004124426653227,
                -0.10908646119644186,
                -0.1415207879329091,
                -0.2101291634760216,
                -0.06542778853374166,
                -0.1575225578992778,
                -0.07060290840234984,
                -0.17194342738984192,
                -0.10152433906139507,
                0.06581801768069498,
                0.03703406254464724,
                0.03235514493168555,
                0.006971693049993698,
                0.1746763422658776,
                0.3283015802264168,
                0.16855702989493812,
                0.04673926021522413,
                -0.0008789930635975023,
                0.04533659231944634,
                -0.017369378938195297,
                0.02700941544707778,
                0.006128488396184283,
                0.05528763447269384,
                0.07828701201201296,
                0.0799772973914956,
                0.0016170343753661874,
                -0.012886682020385553,
                -0.12669006074796618,
                -0.25042859027725434,
                -0.05832559197196151,
                -0.0026871199456617563,
                -0.24977696059066049,
                -0.0023925424059983943,
                -0.005754628297111538,
                -0.17027398727699636,
                -0.17684584479510096,
                -0.06924094094638863,
                -0.04413074924849516,
                0.022863528115987377,
                0.03858970804337346,
                -0.035443833020183176,
                0.02371634754315835,
                0.19204271601255493,
                0.12628010191024375,
                0.04816950596313026,
                0.027149810008701293,
                -0.03273099267556931,
                0.017942638792803542,
                -0.03860353878475005,
                0.03162561145617855,
                -0.046543227652925415,
                0.08717380936527883,
                0.019254360468862232,
                -0.005795178889744548,
                0.13710166012519978,
                0.05299578688222189,
                -0.08367491052567784,
                -0.12111977770831757,
                -0.1988266741431756,
                -0.05685135538187007,
                -0.011161963239494215,
                -0.006274030392634434,
                -0.07002497714089706,
                -0.16348929034249524,
                -0.1050959817460936,
                0.01809658499076875,
                0.05977591340678909,
                -0.07368856370489064,
                -0.0011185711047997815,
                -0.07028975179804771,
                0.021808489875093106,
                0.06637444868416387,
                0.06994726463493493,
                0.029726874113066484,
                -0.031982139636521564,
                0.026412226352119893,
                0.044978833080832496,
                -0.056701328533696124,
                -0.08791773584980181,
                -0.06677172696168457,
                -0.10679877056430463,
                -0.03192474897822834,
                0.1357113078190968,
                0.4135184354965169,
                0.35944066624074783,
                0.1341303980460945,
                -0.03175631167430269,
                0.02001512279303893,
                -0.09186464298004053,
                0.02167088092075649,
                0.18445415843966978,
                0.02566644131422083,
                0.035941100031447556,
                -0.05454903961823916,
                -0.03526518431059488,
                -0.1470834329228186,
                -0.06466257848211468,
                -0.11691731151389542,
                0.08530419768631159,
                0.09591716874013594,
                0.01439600104180252,
                0.033173839627276644,
                0.015525824670982912,
                -0.02694369962642536,
                0.0004309568710744905,
                -0.06345984804230563,
                -0.09672000656066167,
                -0.1526032837719875,
                -0.1884582250011008,
                -0.11473283464113296,
                0.058531436794111304,
                0.3152708286163568,
                0.6699653409196067,
                0.523343495576309,
                0.43964345944585537,
                0.24267306429725913,
                0.1485844769424479,
                0.17286637390646017,
                0.030779721619639162,
                0.14478871191881276,
                0.11552301759554374,
                -0.07820630073134203,
                -0.16173467756719845,
                -0.06630226405460933,
                -0.239356118952153,
                -0.06324970775087783,
                0.006784683294230369,
                0.18347556911282883,
                0.11566527058566921,
                -0.05959929282837735,
                0.03290658672362434,
                -0.03157128716105669,
                -0.03676267354693836,
                -0.06472709941198422,
                -0.2538470742143228,
                -0.2208023269422207,
                -0.1363513449384176,
                -0.08624026835472492,
                -0.010140946948486971,
                0.00946350938969605,
                0.2545125661394383,
                0.4158964064358081,
                0.4587197015446268,
                0.2601447282235275,
                0.26500427358316647,
                0.015483427503206991,
                -0.00021216072304169293,
                -0.0010984479779166806,
                -0.018587713986823236,
                -0.11759532946684026,
                -0.07635726362717517,
                -0.08898931913422445,
                -0.11412349394378772,
                0.004095347486755744,
                0.12192690621557162,
                0.19853584954508705,
                0.08775702740504537,
                0.006920626678420317,
                0.03379161264778978,
                -0.03013176683939145,
                0.008562902900648903,
                -0.03218037584197003,
                -0.1730348935942289,
                -0.27846426233453053,
                -0.1077242374616731,
                0.02332668173908747,
                -0.04002096126181308,
                -0.009114844168407509,
                0.004327039007678969,
                -0.008577945115643216,
                -0.013172437288748274,
                0.12053993778670179,
                0.042006464269801244,
                0.05905394357072119,
                -0.059854075380430714,
                -0.08215369208558228,
                -0.10593900428948676,
                -0.06558226682058496,
                -0.07875452025850381,
                -0.07636205345811811,
                -0.0242903758347627,
                -0.014011168126285013,
                0.15341408518533262,
                0.14242113824588237,
                -0.020214660880225884,
                0.024703614593880003,
                0.0033371436541428305,
                0.021341994819022804,
                0.00020077482197801817,
                0.032212150952299,
                -0.08854142398957586,
                -0.21462611161475126,
                -0.0244649818007564,
                -0.008120440871292836,
                0.06718385839700931,
                0.07101740791213282,
                -0.018672606251954993,
                0.040572069819946766,
                -0.14936234115887848,
                0.07785265634214544,
                0.054382281520460374,
                0.010363929896623707,
                0.11899259583137377,
                -0.07488507836355998,
                -0.037016241340480274,
                -0.15183586100128033,
                0.09177082249649461,
                0.001180694411851483,
                -0.0001967927781632107,
                0.15265887438884734,
                0.22196595405866,
                0.038900939060299455,
                0.032581964759018936,
                0.03553457045423915,
                -0.02449814701648571,
                0.024336142662894585,
                -0.034101217118347606,
                0.008108448773540432,
                -0.05762186307339935,
                -0.18184145303427468,
                -0.0018351981866108395,
                0.10145537528977418,
                0.05318955043015254,
                0.013980517897664572,
                0.10958721272127861,
                0.024518268498936277,
                0.03811848591261202,
                -0.09152769169417597,
                0.11207310851438097,
                0.09419253347930863,
                0.036259160605806175,
                0.02118506706242834,
                0.04707022335063303,
                0.017416633879162684,
                0.14209288441890258,
                0.09775997306240883,
                -0.012569114893883005,
                0.22842933356152367,
                0.13472656979497916,
                0.07692902571753513,
                -0.025788477007773095,
                -0.010937005788755796,
                -0.03871856562750302,
                -0.031181332970380914,
                0.029200938710278804,
                0.012723031298337087,
                0.01794913643109127,
                -0.14847779975451156,
                -0.10035161789430369,
                0.13417825953033238,
                0.10035582388480106,
                0.04039579437674636,
                -0.08731698501893029,
                -0.015632965645169025,
                0.10235408592499687,
                0.19547417310551377,
                0.18348288761089152,
                0.07571323681971004,
                0.0635728888668147,
                0.05973869802048259,
                -0.009886715332672737,
                0.18121757026865612,
                0.0284119696618462,
                0.12263278227361309,
                0.150338088969283,
                0.17973797727686117,
                0.05368853753081778,
                0.04220470426184653,
                0.040517223072501725,
                -0.029250220545458182,
                0.006248563003674587,
                0.04246568144211257,
                -0.026834995581018338,
                -0.04844034307494164,
                -0.054513710133715323,
                -0.14221157730682407,
                -0.2365233028512287,
                -0.19441660662057964,
                -0.1060264208971128,
                -0.004680735973643373,
                -0.003689152835792706,
                0.04674937179691296,
                0.13655309744339558,
                -0.00226476121278764,
                0.1593247240527511,
                0.25958320388108075,
                0.1932905097404072,
                0.1566343351912846,
                0.10638646499957234,
                0.0573613426150404,
                0.22266963189278227,
                0.2397943432588987,
                0.13917892266265205,
                0.18974075610188404,
                0.09971526757617385,
                0.0014058936406341593,
                0.049933601286059816,
                0.005241014195259129,
                -0.005405974140157373,
                -0.004856249187059833,
                0.04668114608526094,
                -0.02606895972486554,
                -0.008631566415769185,
                -0.05472544797470033,
                -0.21885650554075914,
                -0.258616954436889,
                -0.25028531746294874,
                -0.07501083657790075,
                -0.053176309583981486,
                -0.06942606915643089,
                -0.055998970792045855,
                0.0578557334068696,
                0.0293842310370163,
                0.17222396097192258,
                0.07972511173925856,
                0.04278280202014582,
                -0.01274192650614014,
                0.08713156084747083,
                0.24403229522016245,
                0.07237132024811557,
                -0.005317214842243486,
                -0.03292406329659484,
                0.0288924029664237,
                0.004637860615754407,
                0.031513187614020666,
                0.022079761711959453,
                -0.032686640739013964,
                0.04229711198240523,
                0.00784953759885662,
                -0.013326010744672824,
                -0.030811323209784722,
                -0.002894405890055295,
                -0.0297625872128084,
                -0.04006899360628284,
                -0.06376966812448626,
                -0.0801819677174259,
                -0.13026073635931593,
                -0.1012642221024501,
                -0.06204799696743286,
                -0.11500479476263852,
                0.005608778375344903,
                0.02722617503135441,
                0.04196156167078362,
                -0.0026631708659898565,
                0.048640084233704,
                0.10101355152984307,
                0.1383768270491442,
                0.004579629787233375,
                0.010624030779708712,
                -0.04134566324631117,
                -0.028175381519376895,
                -0.010570956349016902,
                -0.04174300731708356,
                0.04473207030332632,
                -0.009580180032346695,
                -0.030253905202764376,
                -0.015777164989351063,
                -0.030729948168266148,
                -0.025103058155580706,
                0.016086157742696013,
                -0.02587420076233052,
                0.024137687866877863,
                0.03490716949196458,
                0.060299279582612095,
                0.07146095171891102,
                0.0830386535691991,
                0.15405812727229054,
                0.1787979035167791,
                0.10214396717799568,
                0.04369143588656675,
                0.04030199728065489,
                0.11447240319171234,
                0.10034209093786166,
                0.11216652667354025,
                -0.0042423763902122175,
                -0.01731100970272716,
                0.011243604385117923,
                -0.03470167178869954,
                0.017312347863970318,
                0.038444207700817065,
                -0.0038534686763638387,
                0.002350192720352501,
                -0.0325481381943975,
                -0.038272811887122754,
                0.011500368479299791,
                0.02186072378431913,
                -0.021465401088348074,
                -1.6837060910358417e-05,
                0.0468896630913047,
                -0.045624591310532626,
                -0.01548920581860847,
                -0.018765606862219484,
                0.05307287085484824,
                0.06394442318159774,
                -0.013901061815065518,
                0.0555569203953384,
                0.011260305483685064,
                0.0003253351455263439,
                0.043962454425760474,
                0.03521975473929626,
                0.06159471934009416,
                0.039726301802463115,
                0.008216619396827805,
                -0.038893679354244114,
                0.01888292502085458,
                0.02290938597123083,
                0.04339674387739588,
                -0.03786517041927393,
                0.023946721097122946,
                0.004701251836255596,
                -0.004310310070505481
            ],
            [
                0.010836463085579402,
                -0.04012786102812467,
                -0.00816643672945326,
                0.05007025104602505,
                0.027027159345361394,
                0.026524623397812593,
                0.04264926017794376,
                0.023171431278072828,
                0.03515176189684454,
                -0.009992083836967577,
                -0.010086912997315962,
                0.04616718664662669,
                0.02473907242256159,
                -0.005682190910144749,
                -0.0010508992986774102,
                -0.04883170755523089,
                -0.027301029959102965,
                -0.0028989169845416787,
                -0.02082947251311942,
                0.04867077486286949,
                -0.038838120884666295,
                0.000561442260091409,
                -0.04950630346545219,
                -0.0229791135433739,
                -0.027836686071201336,
                0.010615625260298273,
                0.03911502028958238,
                0.00671180683799423,
                0.014556555325805819,
                -0.02223109518904748,
                -0.019307400265602116,
                -0.0001004862626414818,
                0.0069216193428058605,
                0.0046682997266542115,
                -0.025160676655938775,
                -0.03834718427235628,
                -0.020300129631452987,
                0.022899794241878896,
                0.0011167958224608417,
                -0.048597426219924036,
                -0.05373025371088048,
                0.01838355650313263,
                -0.029170400067072094,
                0.03160335667089008,
                0.0536203059054634,
                -0.026006646870816226,
                -0.05560279715001922,
                0.018365454980077456,
                -0.0065313383375705985,
                0.032089281688388496,
                -0.03552782515535306,
                -0.02636899332463534,
                -0.002864617277800831,
                -0.03679220058004024,
                -0.014108396518940025,
                -0.04893545408722755,
                0.030484426816685582,
                -0.0403349783360885,
                0.009683114733800555,
                -0.024018264064002506,
                -0.04793741030198984,
                -0.039520071308323065,
                0.017935260290989803,
                0.029955511506318606,
                -0.07167934690094295,
                -0.07205914904708793,
                -0.06891008984363839,
                0.02992963793908176,
                -0.10028968835323028,
                -0.09242827318034973,
                -0.10339155519433077,
                -0.05257381315042649,
                0.0015392538670991867,
                -0.03540823197141591,
                -0.08163012318621203,
                -0.0879872552746812,
                -0.04841537810942423,
                -0.012778587616152429,
                -0.075835313778922,
                0.013059713835827732,
                0.03510644714950036,
                0.04580145496013631,
                0.03931517449589012,
                0.03873182026405184,
                0.040498622023147,
                0.048558521711656956,
                -0.016938746999391227,
                0.04336573073580149,
                0.04314108266555636,
                0.030540107137328538,
                0.02310054396497687,
                0.00422292831601704,
                0.04127485403124724,
                0.006502742185124375,
                0.06176111716858478,
                0.07914253857813365,
                0.13745427882276168,
                0.0837111303871362,
                0.00647734800719678,
                -0.009105422480097278,
                -0.018236257391471708,
                -0.05397174694610593,
                -0.030464295686224767,
                -0.07517098951211791,
                -0.05812694142147293,
                -0.11999492159984491,
                -0.07326038832013648,
                -0.01952741896341822,
                -0.009495435244720261,
                0.033027568769312225,
                -0.028021754903008605,
                0.021875290556877806,
                0.007619864340784634,
                -0.003036094432627524,
                0.027129387742203304,
                0.0563952439547272,
                -0.02625464360258574,
                0.0478628928987912,
                0.020034737860621238,
                0.02238390133935098,
                0.1469922405908014,
                0.11641760921632253,
                0.12610446187215055,
                0.1663226704298138,
                0.2723739762808645,
                0.43004485362122535,
                0.35637996413187234,
                0.15134676312778134,
                0.08979859026234267,
                -0.0006068765372652395,
                0.11781564330459156,
                -0.0049036686911707195,
                -0.07516410589155212,
                -0.22272910720866074,
                -0.03272289552139959,
                -0.0782510739748855,
                0.05511798337057944,
                -0.012452022095688223,
                0.04655787272070024,
                0.04421299889915028,
                -0.01563010593449446,
                -0.04873493527845747,
                -0.013071945794790691,
                0.03184634505745855,
                0.08902472904135685,
                0.21670102308841113,
                0.2184268450385513,
                0.23435384240827808,
                0.11544892997336749,
                0.02836734159241222,
                -0.06141809750879193,
                0.12902323779488925,
                0.15707704585721646,
                0.10742857858265245,
                0.06378942837810504,
                0.19538001715825978,
                0.12777896192721433,
                -0.05113018311229977,
                -0.03746772294379993,
                0.01886336037886979,
                -0.14118117939291588,
                -0.10992948808949152,
                -0.10362633092802197,
                -0.13132085193181678,
                0.05774476818932907,
                0.049589358688895586,
                0.05439652166356382,
                0.03130825791009544,
                -0.02311374188233592,
                -0.02710667476101777,
                -0.04037804834585465,
                0.06822469489043576,
                0.23760207584603285,
                0.24722387718764402,
                0.2054739711056432,
                0.09900145003146585,
                0.20366767314118503,
                0.2599574753895233,
                0.1708614657811727,
                0.14921253594155784,
                0.17763107704868472,
                0.14554008207358257,
                7.256158098814793e-05,
                0.17807894214446537,
                0.0768020405869092,
                -0.03685573130220013,
                0.04637088224366104,
                -0.07229379448897241,
                0.10257319194668378,
                0.07429286933893443,
                -0.050375121521401243,
                -0.030340713772240027,
                0.005175139486273408,
                0.0855320288686335,
                0.02618666346616384,
                -0.014824941498370903,
                0.011590136033115407,
                -0.01333081664180462,
                -0.0011882842678233023,
                0.0800400302845146,
                0.3352753077392589,
                0.33873619395953425,
                0.14937292025219265,
                -0.014921569844956649,
                -0.03014665938576544,
                0.11031412649393706,
                -0.030125660630437246,
                -0.005733820291714385,
                -0.04502861024883436,
                -0.003565820567226062,
                0.07467097098887684,
                -0.09839662172925279,
                0.012873355680744143,
                -0.06182287680104683,
                0.014042624712889739,
                0.03839679225725977,
                0.12614235583062108,
                0.133250488138526,
                -0.009141737426955752,
                -0.07732523816618977,
                0.04099023434767256,
                -0.02290514683981491,
                0.017787376120321788,
                -0.002515777911549766,
                -0.028529627229851712,
                0.04320010127612518,
                -0.02888169035821626,
                0.10706586457636542,
                0.29917863833539426,
                0.20303166992610971,
                0.24076468267163356,
                0.17802849729637496,
                0.14562708246777062,
                0.07277517508574892,
                0.06778616389278795,
                0.07798468620635415,
                0.1701445829997841,
                0.18538885724067938,
                0.06847496364170162,
                -0.02381551338892257,
                -0.10241006818209043,
                0.002002171335409169,
                0.06505122413204456,
                0.07187312404523505,
                0.05938846868100611,
                0.04749779245609969,
                0.11339103879882917,
                -0.2720254344991203,
                -0.07431018663921758,
                0.0734002673037192,
                0.06843475986340704,
                0.03990215060731569,
                0.0025569358903984292,
                0.032557855396885424,
                -0.04442172589784031,
                0.08764686506135755,
                0.19332198006440307,
                0.1438308806475746,
                0.30406077757324357,
                0.2523754986193663,
                0.10856999686305273,
                0.16147347889872962,
                0.05713053509223809,
                -0.18576677939427486,
                -0.007116102981654553,
                0.16680966096053973,
                0.1534943746275174,
                0.1131695619148012,
                0.01071762613792349,
                0.07463038088518051,
                -0.025773995093300344,
                0.06341873454255459,
                -0.024506494976320282,
                0.0837705780668513,
                0.0017998827826303935,
                -0.183130608700041,
                -0.236209146426339,
                -0.07361086020936013,
                0.07716518178063343,
                -0.009523351458424277,
                -0.0010171232934212426,
                0.006287551574721922,
                -0.036951910827529154,
                0.1440001537929065,
                0.1465265405939626,
                0.14149792968871044,
                0.23063482703407376,
                0.11312987112357942,
                -0.12823443474906182,
                -0.17762895572570112,
